0.000135962062921371
-5.41318240902894e-19
-0.000174481714897857
0.00140198675075756
0.00206740737086389
-0.00230501066463107
-0.00637489232520866
7.98718259396769e-18
0.0102176531891503
0.00590735457731037
-0.00841154545500157
-0.00890259866643510
0.00167049122203530
-3.68237789892765e-18
-0.00241871644932316
0.0187350318566239
0.0259296763739894
-0.0270006250483734
-0.0704404173262520
2.83298666664898e-17
0.107958808088199
0.0647551314842741
-0.102297149569726
-0.135339272998054
0.0423340300757474
0.166051931868918
0.0423340300757474
-0.135339272998054
-0.102297149569726
0.0647551314842741
0.107958808088199
2.83298666664898e-17
-0.0704404173262520
-0.0270006250483734
0.0259296763739894
0.0187350318566239
-0.00241871644932316
-3.68237789892765e-18
0.00167049122203530
-0.00890259866643510
-0.00841154545500157
0.00590735457731037
0.0102176531891503
7.98718259396769e-18
-0.00637489232520866
-0.00230501066463107
0.00206740737086389
0.00140198675075756
-0.000174481714897857
-5.41318240902894e-19
0.000135962062921371